{
  "schema_version": "1",
  "slug": "cell-eigenvec-16",
  "title": "cell Mk.VIII 1000/1000 → 16 eigenvec (Hexad/Law/Phi/SelfRef)",
  "created": "2026-04-21",
  "path_b_day": 2,
  "roadmap_entry": "25",
  "depends_on": ["22"],
  "parallel_with": ["23"],
  "raw_strict": "raw#9 hexa-only deterministic no_python no_llm",
  "template_count": 16,
  "dim": 16,
  "eigenvecs": [
    [0.408248,0,0.408248,0.408248,0,0.408248,0,0.408248,0,0,0,0,0.408248,0,0,0],
    [0,0.408248,0,0,0.408248,0,0.408248,0,0.408248,0,0,0.408248,0,0,0,0.408248],
    [0.182574,0,-0.365148,0.182574,0,0.182574,0,-0.365148,0,0.547723,0.547723,0,0.182574,0,0,0],
    [-0.139372,0.309715,0.278743,-0.139372,-0.154857,-0.139372,0.309715,0.278743,-0.154857,0.511029,0.0464572,-0.154857,-0.139372,0.464572,0,-0.154857],
    [0.333148,-0.17524,0.136726,-0.2022,0.221457,-0.2022,-0.17524,0.136726,0.221457,-0.0616228,0.335074,0.221457,-0.2022,0.138651,0.535348,-0.313891],
    [-0.208668,-0.216643,0.251199,-0.269807,-0.134239,0.245883,-0.216643,-0.26449,0.381451,-0.0478475,0.0345565,-0.134239,0.245883,0.494424,0.0611384,0.320312],
    [0.213954,0.329605,-0.26831,-0.0242867,-0.303005,0.371239,0.329605,-0.101387,0.0925207,-0.430992,0.061295,-0.303005,-0.191209,0.14148,0.238241,-0.14572],
    [-0.151256,0.303938,0.0175733,-0.0653292,-0.000570561,0.246768,-0.353919,0.0697796,-0.34633,0.160556,-0.073203,-0.000570561,-0.117536,-0.197928,0.57193,0.397453],
    [-0.113712,-0.183379,-0.0967276,0.128682,-0.114576,0.0498032,0.186834,-0.071682,-0.520487,-0.24988,0.08147,0.582669,0.103637,0.414835,0.0846366,0.0489396],
    [-0.121298,0.0976021,-0.262131,0.474434,0.34861,-0.303308,-0.217344,0.189657,-0.0175479,-0.201524,0.129051,-0.37792,0.0226462,0.39374,0.0391057,0.1666],
    [-0.491353,0.274627,0.225205,0.419452,-0.138777,-0.0449072,-0.0900175,-0.25241,0.236363,-0.042116,0.0149114,0.16319,0.144013,-0.115289,0.215666,-0.445385],
    [-0.125491,-0.110447,0.502168,0.0464335,0.112284,-0.0563604,0.27458,-0.192849,-0.230123,-0.225612,0.534931,-0.252351,-0.173901,-0.247841,-0.0392493,0.206056],
    [0.0640841,-0.219923,-0.0732904,0.233119,-0.598932,-0.416727,0.197495,0.16438,0.233093,0.0733162,0.0177735,0.0177992,0.0284342,-0.141978,0.266182,0.370468],
    [-0.145308,0.328701,-0.130162,-0.348535,-0.228831,-0.0922974,-0.224744,0.378226,0.011059,-0.229432,0.477495,0.117901,0.338077,-0.122589,-0.232317,-0.00408701],
    [-0.212746,-0.19675,-0.164759,-0.237542,0.265535,-0.0447911,0.402301,0.0839772,-0.0887792,0.0159957,-0.096777,-0.24554,0.57586,-0.140765,0.378307,-0.136766],
    [-0.449543,-0.364494,-0.194397,0.100236,0.0485992,0.443468,0.094161,0.446505,0.209584,0.0850487,0.16706,0.0577116,-0.34627,-0.0668239,-0.033412,-0.0455618]
  ],
  "template_ids": [
    "hexad_c",
    "hexad_d",
    "hexad_w",
    "hexad_m",
    "hexad_s",
    "hexad_e",
    "law_closed_loop",
    "law_saturation",
    "law_falsifiable",
    "phi_integrated",
    "phi_holo",
    "phi_scaling",
    "selfref_I",
    "selfref_meta",
    "selfref_observer",
    "selfref_qualia"
  ],
  "template_families": [
    "Hexad",
    "Hexad",
    "Hexad",
    "Hexad",
    "Hexad",
    "Hexad",
    "Law",
    "Law",
    "Law",
    "Phi",
    "Phi",
    "Phi",
    "SelfRef",
    "SelfRef",
    "SelfRef",
    "SelfRef"
  ],
  "mk8_gen_weights": [
    1,
    1,
    1,
    1,
    1,
    1,
    0.687,
    0.687,
    0.687,
    0.125,
    0.125,
    0.125,
    0.04,
    0.04,
    0.04,
    0.04
  ],
  "orthogonality": {
    "mean_off_diagonal": 1.60329e-16,
    "max_off_diagonal": 9.92262e-16,
    "tolerance": 0.01,
    "verified_100pct": true
  },
  "orthogonality_matrix": [
    [1,0,0,0,-2.77556e-17,0,4.16334e-17,5.55112e-17,1.80411e-16,6.93889e-17,1.31839e-16,1.11022e-16,1.47451e-16,-3.33067e-16,-4.996e-16,-3.05311e-16],
    [0,1,0,-2.77556e-17,5.55112e-17,0,-7.63278e-17,1.11022e-16,6.59195e-17,4.16334e-17,1.38778e-16,2.35922e-16,3.05311e-16,-8.89046e-17,2.28983e-16,1.73472e-17],
    [0,0,1,-7.28584e-17,7.63278e-17,1.38778e-17,1.11022e-16,3.81639e-17,-1.21431e-16,-6.50521e-17,-3.46945e-18,4.85723e-17,1.38778e-17,2.63678e-16,7.63278e-16,9.29812e-16],
    [0,-2.77556e-17,-7.28584e-17,1,2.08167e-17,3.46945e-17,4.51028e-17,7.63278e-17,-1.27502e-16,6.245e-17,5.55112e-17,2.498e-16,1.17961e-16,2.80158e-16,6.41848e-16,6.22766e-16],
    [-2.77556e-17,5.55112e-17,7.63278e-17,2.08167e-17,1,-2.77556e-17,1.11022e-16,6.93889e-17,3.46945e-17,-2.77556e-17,-2.77556e-17,-5.55112e-17,-1.80411e-16,2.292e-16,2.15106e-16,2.65413e-16],
    [0,0,1.38778e-17,3.46945e-17,-2.77556e-17,1,1.38778e-16,2.77556e-17,1.73472e-17,-2.498e-16,2.77556e-17,2.63678e-16,-1.11022e-16,6.38161e-16,6.45317e-16,8.34402e-16],
    [4.16334e-17,-7.63278e-17,1.11022e-16,4.51028e-17,1.11022e-16,1.38778e-16,1,-2.498e-16,9.54098e-17,2.08167e-16,1.94289e-16,-6.245e-17,2.84495e-16,-7.99165e-16,-9.92262e-16,-9.65374e-16],
    [5.55112e-17,1.11022e-16,3.81639e-17,7.63278e-17,6.93889e-17,2.77556e-17,-2.498e-16,1,-8.32667e-17,2.77556e-17,2.77556e-17,1.80411e-16,1.11022e-16,-2.00577e-16,2.77556e-17,-2.42861e-17],
    [1.80411e-16,6.59195e-17,-1.21431e-16,-1.27502e-16,3.46945e-17,1.73472e-17,9.54098e-17,-8.32667e-17,1,-3.1225e-17,-5.55112e-17,-3.64292e-17,-1.73472e-17,5.51046e-17,7.37257e-17,6.1149e-17],
    [6.93889e-17,4.16334e-17,-6.50521e-17,6.245e-17,-2.77556e-17,-2.498e-16,2.08167e-16,2.77556e-17,-3.1225e-17,1,-5.55112e-17,-1.17961e-16,-1.59595e-16,-1.2284e-16,-1.04083e-16,-4.42354e-17],
    [1.31839e-16,1.38778e-16,-3.46945e-18,5.55112e-17,-2.77556e-17,2.77556e-17,1.94289e-16,2.77556e-17,-5.55112e-17,-5.55112e-17,1,2.08167e-16,5.55112e-17,-1.64148e-16,-9.02056e-17,-4.51028e-17],
    [1.11022e-16,2.35922e-16,4.85723e-17,2.498e-16,-5.55112e-17,2.63678e-16,-6.245e-17,1.80411e-16,-3.64292e-17,-1.17961e-16,2.08167e-16,1,1.80411e-16,1.84314e-17,1.14492e-16,1.11022e-16],
    [1.47451e-16,3.05311e-16,1.38778e-17,1.17961e-16,-1.80411e-16,-1.11022e-16,2.84495e-16,1.11022e-16,-1.73472e-17,-1.59595e-16,5.55112e-17,1.80411e-16,1,-4.38018e-17,-6.245e-17,-3.46945e-18],
    [-3.33067e-16,-8.89046e-17,2.63678e-16,2.80158e-16,2.292e-16,6.38161e-16,-7.99165e-16,-2.00577e-16,5.51046e-17,-1.2284e-16,-1.64148e-16,1.84314e-17,-4.38018e-17,1,5.44269e-17,1.30375e-17],
    [-4.996e-16,2.28983e-16,7.63278e-16,6.41848e-16,2.15106e-16,6.45317e-16,-9.92262e-16,2.77556e-17,7.37257e-17,-1.04083e-16,-9.02056e-17,1.14492e-16,-6.245e-17,5.44269e-17,1,2.55004e-16],
    [-3.05311e-16,1.73472e-17,9.29812e-16,6.22766e-16,2.65413e-16,8.34402e-16,-9.65374e-16,-2.42861e-17,6.1149e-17,-4.42354e-17,-4.51028e-17,1.11022e-16,-3.46945e-18,1.30375e-17,2.55004e-16,1]
  ],
  "mk8_cert_sha": "e4728bb5da55d5ac23fb6ebcaf2179101236d0fe056def878a489711915ea9e5",
  "prev_index_sha": "f89c5a07ccecf2f3f7c8c833901ce61f13af12c8d43ee087740449b36a26b7cd",
  "sha_chain_verified": true,
  "deterministic_sha": "211e2deb7cea27a26d0d0114a80071cdd1c3e9b7dbb001c81329c37a834e0e24",
  "selftest_3run": {
    "run1_sha": "211e2deb7cea27a26d0d0114a80071cdd1c3e9b7dbb001c81329c37a834e0e24",
    "run2_sha": "211e2deb7cea27a26d0d0114a80071cdd1c3e9b7dbb001c81329c37a834e0e24",
    "run3_sha": "211e2deb7cea27a26d0d0114a80071cdd1c3e9b7dbb001c81329c37a834e0e24",
    "byte_identical": true
  },
  "phase_gate": "100%",
  "exit_criteria": {
    "16_eigenvec_extracted": true,
    "orthogonality_verified_100pct": true,
    "sha_chain_mk8": true,
    "selftest_byte_identical": true
  },
  "cross_refs": ["cell-mk8-stationary", "cell-hexad-closure", "mk8-7axis-skeleton"],
  "verdict": "VERIFIED"
}
